/* Generated by python -m src.export_c_quant. Do not hand edit. */
#ifndef EMBERWATCH_MODEL_Q_H
#define EMBERWATCH_MODEL_Q_H

#include <stdint.h>

#define EW_Q_VERSION 1
#define EW_Q_BITS 8
#define EW_Q_INPUT_SIZE 6
#define EW_Q_RESERVOIR_SIZE 48
#define EW_Q_OUTPUT_SIZE 3
#define EW_Q_DESIGN_SIZE 55
#define EW_Q_RESERVOIR_NNZ 333
#define EW_Q_LEAK_RATE 0.25f
#define EW_Q_CLIP_NORMALIZED 6.0f
#define EW_Q_ALERT_THRESHOLD 0.7f
#define EW_Q_CONSTANT_BYTES 1709

typedef int8_t ew_q_weight_t;

static const float ew_q_feature_mean[6] = {
    10.8084421f, 12.1256075f, 0.000259699998f, 0.000259699998f, 0.000249691191f, 0.120914482f
};

static const float ew_q_feature_std[6] = {
    9.0939312f, 5.72097445f, 0.0647930652f, 0.0647930652f, 0.0357644111f, 0.291141897f
};

static const int8_t ew_q_input_weights[336] = {
    64, 115, 32, -23, 127, 73, 71, 36, 25, -71, -38, 70, -46, -127, 50, -66,
    31, -27, -51, -127, -79, -16, 88, -81, 31, -19, 80, -127, -64, 77, -13, -92,
    -36, 127, -12, 107, -95, -25, 38, 127, -51, -116, 127, 38, 38, -16, -80, -110,
    -57, -61, 27, 47, 95, -110, -17, 127, 48, 127, -91, 21, -50, 70, 120, 57,
    108, -107, -127, -105, 69, -42, 76, 68, -87, 74, 127, -108, -111, 94, -127, -16,
    -30, -23, -65, 17, -41, 127, 82, -8, -102, 12, 14, 8, -127, 79, 14, -70,
    52, 98, 76, -90, 53, 8, -127, 2, -98, -94, -96, -127, -9, -48, 53, -10,
    127, 101, 74, -77, -10, 86, -3, -28, -117, 66, -75, 127, 118, -94, 97, -115,
    -25, 127, 83, -85, -86, -75, 115, -97, 127, 59, 93, 53, 47, -9, -122, -127,
    -3, -82, -104, 67, -44, 103, -127, -90, 120, 7, 19, -127, 20, 121, 6, -12,
    -47, -31, -127, 22, -30, 110, -13, -86, -91, 127, 37, 46, 32, 10, -93, 127,
    -100, -113, -47, 32, -71, -20, -37, 121, 99, 47, 9, -111, -127, -18, -85, -24,
    17, 39, 117, 127, -44, 54, -8, -86, -55, 89, -127, 13, 10, -73, -37, 8,
    -127, -84, -84, 36, 35, 93, -127, 39, 85, 100, -85, 28, -16, -97, 127, -90,
    -51, -21, 121, -127, -90, 86, 56, 5, 100, 111, -127, 24, -74, -112, -108, 26,
    53, -97, 57, -127, 127, 17, 17, 102, -127, 0, 65, -98, 64, -8, -111, -3,
    5, 117, 127, 127, -28, -26, 95, -37, -67, 80, -113, -88, 98, 53, -8, 127,
    12, 50, -37, -111, -127, -5, 4, -71, -72, -127, 79, 56, 23, 43, -83, -42,
    -125, 127, 90, 82, 51, 26, 16, -125, 96, -84, -127, -7, -2, -115, -121, 75,
    -24, 127, -44, -30, 100, -66, -37, -90, 127, 102, 66, 111, 101, 50, 127, -108,
    52, 120, -42, -90, 45, -10, -127, 110, 80, 24, -74, 82, 123, -26, 44, -127
};

static const float ew_q_input_scales[48] = {
    0.00390204811f, 0.00358133204f, 0.00366614596f, 0.00367990695f, 0.00292469258f, 0.00372746051f,
    0.0031946837f, 0.00370279769f, 0.00352925691f, 0.00329815317f, 0.00328348693f, 0.00372588937f,
    0.00370595115f, 0.00277616573f, 0.00360382465f, 0.00355840265f, 0.00324962824f, 0.00334352255f,
    0.00386698102f, 0.00359286182f, 0.0023466174f, 0.00315053854f, 0.0036659874f, 0.00337803015f,
    0.00369777414f, 0.00377854262f, 0.00340452045f, 0.00379891112f, 0.00298408885f, 0.00253452081f,
    0.00333453878f, 0.00344395079f, 0.00381559692f, 0.00351989595f, 0.00322498917f, 0.00358872581f,
    0.00283228024f, 0.00384868123f, 0.00374047202f, 0.0037833096f, 0.00378294731f, 0.00378812337f,
    0.00335644907f, 0.00323073869f, 0.00353923463f, 0.0017390931f, 0.00280554034f, 0.00389959104f
};

static const int8_t ew_q_reservoir_values[333] = {
    -72, 12, 2, 127, -34, -110, -70, -27, 79, -125, -92, -127, -114, 94, -113, -127,
    40, -105, -55, -24, 30, -84, -127, -34, -43, 94, 119, -16, -100, 95, -37, 58,
    120, 23, -8, 49, 127, -14, -89, -78, -28, 8, 127, 72, -103, 127, 30, -30,
    63, 84, 45, -109, -116, 113, 127, 104, -48, -83, -105, 28, -27, 125, 127, -2,
    95, -31, 91, -11, 52, -63, 19, -72, 103, -99, 127, -77, -78, -104, -72, -85,
    -9, 127, -55, -127, -106, -24, -80, 127, 2, -99, 100, -76, -9, -77, 53, 84,
    69, -72, 90, -83, -23, 31, 113, 52, -3, 127, 59, 127, -28, -127, 69, 69,
    115, 91, 127, -63, -118, 99, -110, -9, 125, 82, -103, -107, -127, 24, 121, 114,
    13, -46, -5, -25, 84, 12, 127, 90, 78, 35, 84, -125, 127, -89, 127, 46,
    78, -49, -21, -93, -66, -124, -56, -127, -76, -76, -60, -106, -45, -50, -108, -127,
    26, -78, 68, 81, 111, 2, -95, 55, 127, -39, -85, -51, -120, -127, 100, -32,
    -104, 77, 83, -127, -90, -127, 95, 115, -122, 3, -10, 79, -107, 4, -2, 127,
    -11, 60, 20, -100, 127, 124, 123, 107, -56, -106, -41, -45, 84, 24, 45, -111,
    -127, 80, -117, 13, -127, 99, -78, 79, -70, -63, -127, -72, 69, 107, 32, 127,
    -52, -13, 110, 127, -108, 103, -127, -120, -10, 23, -81, -46, 127, -26, -11, -82,
    -75, -112, 127, -91, 109, -105, -123, -127, -88, 51, -89, 85, 59, 64, 17, -119,
    56, 2, 16, -9, -88, 94, -30, 127, -127, -30, -16, 107, -40, -53, 98, -127,
    20, -29, 92, -63, 109, 106, 93, 32, 127, 78, -5, 2, 38, -6, 109, -10,
    -71, 26, -127, 31, 127, -31, -123, 81, 56, -110, 127, 76, 56, -84, -30, 96,
    -127, -89, -40, -127, -34, 1, -63, 10, 6, 15, 119, 105, 23, -52, -127, 127,
    -17, -107, -25, 27, 16, 126, 70, -46, 21, -126, -94, -52, -69
};

static const uint8_t ew_q_reservoir_indices[333] = {
    2, 22, 27, 28, 36, 42, 46, 6, 7, 19, 22, 23, 24, 26, 27, 34,
    43, 47, 7, 14, 17, 21, 22, 28, 32, 33, 34, 37, 46, 7, 9, 24,
    27, 29, 32, 33, 39, 43, 44, 3, 6, 13, 25, 35, 45, 12, 14, 16,
    20, 26, 29, 37, 42, 43, 4, 8, 15, 42, 47, 2, 9, 14, 19, 27,
    29, 30, 40, 41, 5, 25, 26, 33, 37, 42, 43, 44, 5, 6, 8, 10,
    21, 24, 26, 8, 16, 26, 31, 0, 13, 23, 24, 26, 31, 35, 38, 43,
    44, 0, 1, 6, 10, 14, 15, 16, 19, 23, 26, 29, 3, 7, 10, 17,
    20, 33, 15, 18, 28, 29, 14, 16, 18, 21, 25, 34, 35, 36, 38, 40,
    46, 6, 11, 16, 23, 45, 47, 0, 5, 18, 21, 23, 35, 46, 19, 1,
    2, 3, 5, 6, 7, 9, 15, 20, 26, 35, 0, 9, 10, 14, 26, 30,
    34, 42, 7, 10, 11, 13, 16, 17, 21, 28, 43, 16, 20, 21, 27, 0,
    8, 13, 36, 46, 13, 16, 19, 21, 34, 38, 40, 42, 13, 24, 29, 32,
    34, 8, 11, 21, 32, 38, 39, 41, 6, 10, 16, 27, 28, 30, 31, 35,
    36, 47, 7, 12, 14, 19, 25, 34, 7, 30, 33, 35, 36, 37, 42, 15,
    6, 27, 30, 33, 35, 41, 4, 6, 18, 26, 41, 3, 12, 15, 18, 21,
    40, 12, 13, 24, 30, 40, 42, 0, 7, 14, 21, 22, 23, 26, 33, 39,
    41, 9, 16, 20, 23, 33, 38, 46, 19, 29, 38, 47, 7, 13, 15, 20,
    21, 28, 35, 41, 0, 19, 22, 24, 28, 2, 5, 6, 13, 17, 18, 21,
    31, 36, 45, 6, 7, 9, 15, 20, 32, 1, 8, 24, 0, 6, 12, 13,
    24, 0, 3, 22, 28, 32, 37, 38, 46, 8, 15, 16, 28, 30, 35, 0,
    1, 4, 8, 14, 18, 27, 31, 32, 34, 36, 42, 43, 45
};

static const uint16_t ew_q_reservoir_row_ptr[49] = {
    0, 7, 18, 29, 39, 45, 54, 59, 68, 76, 83, 87, 97, 107, 108, 114,
    118, 129, 135, 142, 143, 154, 162, 171, 175, 180, 188, 193, 200, 210, 216, 223,
    224, 230, 235, 241, 247, 257, 264, 268, 276, 281, 291, 297, 300, 305, 313, 319,
    333
};

static const float ew_q_reservoir_scales[48] = {
    0.00391785335f, 0.00360051892f, 0.0037687216f, 0.00388493924f, 0.00272149034f, 0.00378131028f,
    0.00377067691f, 0.00396473613f, 0.00396877155f, 0.00338843628f, 0.00283711473f, 0.00387545978f,
    0.00398625154f, 0.00072487141f, 0.0040220106f, 0.00308760628f, 0.0033208984f, 0.00379555486f,
    0.003362922f, 0.00307666813f, 0.00395034533f, 0.00366759137f, 0.00325072883f, 0.00254828087f,
    0.00331054209f, 0.00397433061f, 0.00356240105f, 0.00402859366f, 0.00383899966f, 0.00390157616f,
    0.00373899308f, 0.000202196839f, 0.00366984378f, 0.00227678241f, 0.002594291f, 0.00371458475f,
    0.00383890886f, 0.00318720215f, 0.00297802663f, 0.00339621096f, 0.00232287566f, 0.00377464946f,
    0.00346101797f, 0.00388462469f, 0.00309042586f, 0.0037784134f, 0.00368625042f, 0.00394523609f
};

static const int8_t ew_q_output_weights[165] = {
    120, -14, -19, 1, 1, 1, -9, 12, -62, -6, -17, 41, 13, 59, -36, -67,
    -86, 86, -82, 43, -83, -63, -101, -39, -52, -40, -19, -51, 108, 26, -18, -62,
    -9, 74, 18, 58, 47, 108, 5, -55, -29, 10, -38, -1, 45, 63, 78, 67,
    -41, 17, -78, 15, -127, 105, -18, -3, -3, 19, 1, 1, 2, 10, -12, 29,
    -12, -38, 5, 27, 18, -1, -4, 20, -72, 21, -104, -50, 1, 55, 73, 86,
    -9, 35, 42, -95, -42, 62, -30, 4, -25, 9, -16, -44, -28, 56, -7, 34,
    54, 3, 0, -127, -80, -34, -104, 77, 19, -24, -52, 98, -32, 1, -3, 16,
    1, -2, -2, -3, 0, -1, 34, 17, 51, -45, -37, -74, 36, 69, 66, -18,
    60, 53, 127, 60, 48, -29, -28, 47, -14, 11, -18, 13, -40, 88, 5, -50,
    -26, -41, -5, -80, -56, 60, -3, -59, 35, 1, 73, 12, -46, 30, -31, -34,
    98, 34, 34, -73, 16
};

static const float ew_q_output_scales[3] = {
    0.00872998405f, 0.00821367372f, 0.00894111302f
};

#endif
